/*!
 * The following copyright notice may not be removed under any circumstances.
 * 
 * Copyright:
 * Copyright (c) 2010 by Jakob Runge. All rights reserved.
 * 
 * Description:
 * Copyright (c) 2010 by jakob runge. All rights reserved.
 * 
 * Manufacturer:
 * Jakob Runge
 * 
 * Designer:
 * Jakob Runge
 * 
 * License information:
 * www.26plus-zeichen.de
 */
Cufon.registerFont({"w":645,"face":{"font-family":"edelsans","font-weight":400,"font-stretch":"normal","units-per-em":"1000","panose-1":"2 1 5 3 0 2 0 6 0 3","ascent":"750","descent":"-250","x-height":"11","bbox":"-73 -867 978 232.375","underline-thickness":"50","underline-position":"-50","unicode-range":"U+0020-U+007A"},"glyphs":{" ":{"w":301},"8":{"d":"415,-471v80,43,145,118,145,227v0,143,-115,255,-257,255v-142,0,-258,-112,-258,-255v0,-112,65,-184,146,-227v-39,-33,-74,-75,-74,-140v0,-103,84,-184,186,-184v102,0,186,81,186,184v0,66,-35,107,-74,140xm195,-611v0,62,47,113,108,113v61,0,108,-51,108,-113v0,-62,-47,-112,-108,-112v-61,0,-108,50,-108,112xm303,-61v101,0,179,-81,179,-183v0,-103,-78,-184,-179,-184v-101,0,-180,81,-180,184v0,102,79,183,180,183","w":605},"9":{"d":"286,-499v172,0,241,146,241,239v0,205,-122,386,-315,472r-33,-67v94,-42,168,-110,215,-192v-32,16,-69,25,-108,25v-133,0,-241,-105,-241,-238v0,-134,108,-239,241,-239xm286,-94v92,0,163,-73,163,-166v0,-46,-29,-167,-163,-167v-92,0,-163,74,-163,167v0,93,71,166,163,166","w":572},"%":{"d":"398,-648v0,99,-77,176,-174,176v-98,0,-175,-77,-175,-176v0,-99,77,-176,175,-176v97,0,174,77,174,176xm118,-648v0,60,47,109,106,109v59,0,105,-49,105,-109v0,-60,-46,-109,-105,-109v-59,0,-106,49,-106,109xm651,-338v97,0,173,77,173,175v0,98,-76,174,-173,174v-97,0,-173,-76,-173,-174v0,-98,76,-175,173,-175xm651,-56v58,0,104,-48,104,-107v0,-59,-46,-108,-104,-108v-58,0,-104,49,-104,108v0,59,46,107,104,107xm640,-838r60,34r-461,826r-60,-34","w":876},"U":{"d":"581,-814r78,0r0,538v0,161,-125,287,-284,287v-160,0,-285,-126,-285,-287r0,-538r78,0r0,538v0,118,90,213,207,213v116,0,206,-95,206,-213r0,-538","w":749},"L":{"d":"168,-72r307,0r0,72r-385,0r0,-814r78,0r0,742","w":502},"V":{"d":"584,-814r84,0r-315,839r-313,-839r84,0r229,620","w":708,"k":{"Q":45,"O":45,"G":45,"C":45}},"W":{"d":"896,-814r82,0r-231,836r-238,-563r-238,563r-231,-836r82,0r164,603r223,-528r223,528","w":1018,"k":{"Q":45,"O":45,"G":45,"C":45}},"X":{"d":"40,0r257,-417r-252,-397r93,0r211,336r204,-336r93,0r-251,408r258,406r-93,0r-217,-345r-211,345r-92,0","w":698},"Y":{"d":"548,-814r88,0r-260,469r0,345r-78,0r0,-345r-258,-469r87,0r210,380","w":676},"Z":{"d":"614,-814r-444,742r431,0r0,72r-563,0r442,-742r-410,0r0,-72r544,0","w":654},"Q":{"d":"791,-407v0,-199,-135,-344,-325,-344v-190,0,-326,145,-326,344v0,198,136,344,326,344v190,0,325,-146,325,-344xm466,-825v234,0,405,175,405,418v0,243,-171,418,-405,418v-234,0,-406,-175,-406,-418v0,-243,172,-418,406,-418xm909,45r58,50v-187,206,-355,137,-446,70v-91,-67,-162,-104,-242,-30r-51,-54v131,-123,253,-44,351,23v118,80,221,59,330,-59","w":929},"R":{"d":"595,0r-90,0r-219,-348r-118,0r0,348r-78,0r0,-814r257,0v129,0,232,103,232,233v0,121,-88,217,-203,231xm168,-420r179,0v86,0,152,-74,152,-161v0,-87,-66,-161,-152,-161r-179,0r0,322"},"O":{"d":"786,-407v0,-199,-135,-344,-325,-344v-190,0,-326,145,-326,344v0,198,136,344,326,344v190,0,325,-146,325,-344xm461,-825v234,0,405,175,405,418v0,243,-171,418,-405,418v-234,0,-406,-175,-406,-418v0,-243,172,-418,406,-418","w":921},"S":{"d":"147,-622v0,114,89,134,180,169v108,41,214,94,214,246v0,152,-129,218,-254,218v-98,0,-175,-26,-247,-89r47,-61v58,53,120,76,200,76v29,0,174,-8,174,-144v0,-114,-90,-145,-181,-180v-99,-38,-213,-77,-213,-235v0,-121,95,-203,232,-203v84,0,159,33,218,77r-46,61v-47,-34,-107,-64,-172,-64v-73,0,-152,36,-152,129","w":581},"T":{"d":"599,-814r0,72r-239,0r0,742r-78,0r0,-742r-242,0r0,-72r559,0","w":639},"M":{"d":"139,0r-79,0r88,-838r333,511r339,-510r82,837r-79,0r-59,-614r-284,429r-279,-429","w":962},"K":{"d":"168,-377r0,377r-78,0r0,-814r78,0r0,351r318,-351r103,0r-357,394r383,420r-104,0"},"J":{"d":"92,-814r78,0r0,739v0,149,-80,212,-158,224r-21,-75v64,-3,101,-57,101,-149r0,-739","w":241},"G":{"d":"808,-445r1,265v-75,120,-198,191,-348,191v-234,0,-406,-175,-406,-417v0,-243,172,-419,406,-419v116,0,218,41,291,114r-51,57v-59,-61,-142,-97,-240,-97v-189,0,-326,147,-326,345v0,198,137,343,326,343v118,0,213,-58,269,-140r0,-171r-253,0r0,-71r331,0","w":879},"F":{"d":"168,0r-78,0r0,-813r452,0r0,72r-374,0r0,278r294,0r0,72r-294,0r0,391","w":551},"E":{"d":"168,-72r380,0r0,72r-458,0r0,-813r452,0r0,72r-374,0r0,276r294,0r0,72r-294,0r0,321","w":638},"D":{"d":"266,-814v228,0,397,171,397,408v0,236,-169,406,-397,406r-176,0r0,-814r176,0xm266,-72v184,0,317,-143,317,-334v0,-192,-133,-336,-317,-336r-98,0r0,670r98,0","w":718,"k":{"6":10,"&":10,"0":10,"q":10,"o":10,"e":10,"d":10,"c":10}},"C":{"d":"679,-147r47,60v-71,62,-165,98,-275,98v-228,0,-396,-176,-396,-418v0,-242,168,-418,396,-418v109,0,203,35,273,96r-47,61v-57,-51,-135,-83,-226,-83v-183,0,-316,147,-316,344v0,198,133,344,316,344v92,0,170,-32,228,-84","w":766},"B":{"d":"433,-459v77,37,134,120,134,214v0,138,-110,245,-247,245r-229,0r-1,-814r223,0v111,0,200,88,200,201v0,62,-32,126,-80,154xm313,-742r-145,0r0,255r145,0v68,0,120,-57,120,-126v0,-70,-52,-129,-120,-129xm320,-72v94,0,167,-78,167,-173v0,-95,-73,-170,-167,-170r0,-1v-3,1,-4,1,-152,1r1,343r151,0","w":612},"A":{"d":"122,0r-82,0r333,-838r333,838r-83,0r-68,-169r-366,0xm373,-630r-155,389r310,0","w":746},"I":{"d":"90,-814r78,0r0,814r-78,0r0,-814","w":258},"a":{"d":"456,-266r0,266r-76,0r0,-55v-59,63,-123,66,-164,66v-86,0,-176,-59,-176,-161v0,-38,14,-91,63,-130v57,-46,147,-54,275,-30v-7,-87,-39,-117,-122,-117v-38,0,-94,8,-150,39r-31,-66v72,-38,144,-45,182,-45v173,0,199,118,199,233xm380,-200r0,-39v-142,-29,-200,-8,-230,15v-21,16,-32,42,-32,74v0,13,9,93,107,89v102,-4,155,-51,155,-139","w":526},"b":{"d":"78,0r0,-814r76,0r0,394v41,-52,102,-79,163,-79v152,0,241,118,241,254v0,151,-105,256,-244,256v-55,0,-124,-28,-160,-79r0,68r-76,0xm151,-244v0,112,71,183,166,183v97,0,163,-77,163,-184v0,-107,-66,-182,-163,-182v-95,0,-166,70,-166,183","w":603},"c":{"d":"412,-99r41,61v-41,31,-93,49,-155,49v-141,0,-253,-111,-253,-255v0,-143,112,-255,253,-255v59,0,109,16,148,45r-37,64v-28,-23,-65,-37,-111,-37v-100,0,-177,81,-177,183v0,103,77,183,177,183v47,0,85,-14,114,-38","w":493},"d":{"d":"525,-814r0,814r-76,0r0,-68v-36,51,-105,79,-160,79v-139,0,-244,-105,-244,-256v0,-136,89,-254,241,-254v61,0,122,27,163,79r0,-394r76,0xm452,-244v0,-113,-71,-183,-166,-183v-97,0,-163,75,-163,182v0,107,66,184,163,184v95,0,166,-71,166,-183","w":603},"e":{"d":"440,-119r48,55v-52,49,-116,75,-198,75v-143,0,-245,-104,-245,-254v0,-148,100,-256,236,-256v140,0,223,109,220,271r-378,0v0,91,70,167,167,167v64,0,112,-22,150,-58xm281,-427v-73,0,-131,45,-152,126r292,0v-15,-64,-53,-126,-140,-126","w":541},"g":{"d":"450,-68v-36,51,-106,79,-161,79v-139,0,-244,-105,-244,-256v0,-136,89,-254,241,-254v61,0,123,27,164,79r0,-68r76,0r0,413v0,153,-33,307,-273,307v-61,0,-124,-17,-178,-47r26,-68v46,27,99,43,152,43v159,0,197,-76,197,-228xm453,-244v0,-113,-72,-183,-167,-183v-97,0,-164,75,-164,182v0,107,67,184,164,184v95,0,167,-71,167,-183","w":601},"h":{"d":"473,-301r0,301r-76,0r0,-303v0,-103,-65,-124,-122,-124v-69,0,-121,57,-121,127r0,300r-76,0r0,-814r76,0r0,375v47,-47,92,-60,142,-60v97,0,177,74,177,198","w":543},"f":{"d":"161,-684r0,196r121,0r0,70r-121,0r0,418r-76,0r0,-418r-45,0r0,-70r45,0r0,-196v0,-79,63,-141,140,-141v32,0,61,10,84,27r-34,64v-13,-12,-30,-19,-49,-19v-43,0,-65,35,-65,69","w":309},"i":{"d":"114,-723v29,0,52,24,52,52v0,28,-23,52,-52,52v-28,0,-51,-24,-51,-52v0,-28,23,-52,51,-52xm75,-488r78,0r0,488r-78,0r0,-488","w":224},"j":{"d":"76,-488r76,0r0,579v0,79,-63,141,-141,141v-32,0,-60,-10,-84,-26r34,-65v12,12,29,19,48,19v43,0,67,-35,67,-69r0,-579xm114,-723v29,0,52,24,52,52v0,28,-23,52,-52,52v-28,0,-51,-24,-51,-52v0,-28,23,-52,51,-52","w":222},"k":{"d":"478,0r-101,0r-222,-240r0,240r-77,0r0,-814r77,0r0,506r183,-180r105,0r-217,215","w":503,"k":{"6":50,"&":50,"0":50,"q":50,"o":50,"e":50,"d":50,"c":50}},"l":{"d":"78,-814r76,0r0,814r-76,0r0,-814","w":232},"m":{"d":"727,-314r0,314r-76,0r0,-316v0,-90,-57,-109,-106,-109v-61,0,-107,48,-107,109r0,316r-75,0r0,-316v0,-90,-57,-109,-106,-109v-61,0,-106,48,-106,109r0,316r-76,0r0,-488r76,0r0,49v35,-35,71,-60,129,-60v60,0,103,31,129,71v51,-54,93,-71,157,-71v89,0,161,73,161,185","w":797},"n":{"d":"469,-300r0,300r-76,0r0,-303v0,-103,-64,-124,-121,-124v-69,0,-121,57,-121,127r0,300r-76,0r0,-488r76,0r0,49v47,-47,92,-60,142,-60v97,0,176,75,176,199","w":539},"o":{"d":"482,-243v0,-103,-78,-184,-180,-184v-101,0,-179,81,-179,184v0,102,78,182,179,182v102,0,180,-80,180,-182xm302,-499v143,0,258,112,258,256v0,143,-115,254,-258,254v-142,0,-257,-111,-257,-254v0,-144,115,-256,257,-256","w":605},"p":{"d":"78,221r0,-709r76,0r0,68v36,-51,106,-79,161,-79v139,0,244,105,244,256v0,136,-89,254,-241,254v-61,0,-123,-27,-164,-79r0,289r-76,0xm151,-244v0,113,72,183,167,183v97,0,163,-75,163,-182v0,-107,-66,-184,-163,-184v-95,0,-167,71,-167,183","w":604},"q":{"d":"526,-488r0,709r-76,0r0,-289v-41,52,-103,79,-164,79v-152,0,-241,-118,-241,-254v0,-151,105,-256,244,-256v55,0,125,28,161,79r0,-68r76,0xm453,-244v0,-112,-72,-183,-167,-183v-97,0,-163,77,-163,184v0,107,66,182,163,182v95,0,167,-70,167,-183","w":604},"r":{"d":"287,-499v36,0,70,8,98,24r-38,72v-22,-19,-53,-24,-80,-24v-65,0,-116,51,-116,116r0,311r-76,0r0,-488r76,0r0,59v31,-42,78,-70,136,-70","w":410},"s":{"d":"224,-282v78,22,160,42,160,153v0,97,-88,140,-175,140v-63,0,-122,-26,-169,-72r43,-60v35,37,79,60,126,60v17,0,99,-4,99,-68v0,-53,-23,-58,-104,-81v-57,-16,-150,-38,-150,-149v0,-92,85,-140,167,-140v59,0,113,22,155,62r-45,57v-30,-30,-68,-47,-110,-47v-32,0,-91,15,-91,68v0,54,38,61,94,77","w":424},"t":{"d":"256,-77r40,59v-22,18,-51,29,-83,29v-71,0,-127,-57,-127,-132r0,-297r-46,0r0,-70r46,0r0,-183r76,0r0,183r100,0r0,70r-100,0r0,297v0,29,16,60,52,60v16,0,31,-6,42,-16","w":321},"v":{"d":"424,-488r81,0r-239,514r-241,-514r81,0r160,342","w":530},"w":{"d":"721,-488r81,0r-222,510r-166,-342r-171,342r-218,-510r80,0r143,336r166,-334r162,334","w":827},"x":{"d":"479,-488r-177,239r189,249r-93,0r-145,-193r-138,193r-90,0r181,-252r-180,-236r93,0r137,180r131,-180r92,0","w":516},"y":{"d":"505,-488r-330,709r-79,0r121,-266r-192,-443r81,0r152,357r166,-357r81,0","w":530},"z":{"d":"70,-416r0,-72r381,0r-276,416r270,0r0,72r-405,0r277,-416r-247,0","w":491},"1":{"d":"25,-488r189,0r0,488r-76,0r0,-418r-113,0r0,-70","w":289},"H":{"d":"583,-814r78,0r0,814r-78,0r0,-392r-415,0r0,392r-78,0r0,-814r78,0r0,350r415,0r0,-350","w":751},"P":{"d":"334,-814v135,0,243,107,243,243v0,137,-108,243,-243,243r-168,0r0,328r-76,0r0,-814r244,0xm334,-400v92,0,163,-77,163,-171v0,-93,-71,-171,-163,-171r-167,0r0,342r167,0","w":627,"k":{"6":80,"&":80,"0":80,"q":80,"o":80,"e":80,"d":80,"c":80,"a":60}},"0":{"d":"479,-245v0,-102,-77,-181,-178,-181v-101,0,-178,79,-178,181v0,102,77,184,178,184v101,0,178,-82,178,-184xm301,-498v142,0,256,110,256,253v0,143,-114,256,-256,256v-142,0,-256,-113,-256,-256v0,-143,114,-253,256,-253","w":602},"N":{"d":"644,-814r78,0r0,836r-554,-657r0,635r-78,0r0,-838r554,654r0,-630","w":822},"4":{"d":"459,-70r97,0r0,70r-97,0r0,190r-76,0r0,-190r-373,0r449,-543r0,473xm383,-337r-218,267r218,0r0,-267","w":566},"2":{"d":"239,-174v-71,36,-104,57,-105,104r237,0r0,70r-314,0r0,-40v0,-134,77,-158,148,-198v58,-33,88,-49,88,-98v0,-51,-38,-91,-88,-91v-43,0,-79,31,-87,72r-68,-30v21,-67,81,-114,155,-114v91,0,166,71,166,163v0,95,-76,133,-132,162","w":421},"3":{"d":"311,-249v98,26,172,114,172,222v0,129,-104,230,-232,230v-96,0,-176,-57,-211,-140r69,-27v23,56,77,95,142,95v87,0,154,-70,154,-158v0,-87,-66,-156,-154,-157r-65,0r141,-233r-235,0r0,-72r365,0","w":533},"u":{"d":"70,-185r0,-303r76,0r0,303v0,103,59,124,116,124v69,0,119,-57,119,-127r0,-300r76,0r0,488r-76,0r0,-49v-47,47,-90,60,-140,60v-97,0,-171,-72,-171,-196","w":532},"&":{"d":"807,-486r-89,38v6,31,9,62,9,92v0,192,-149,368,-353,368v-175,0,-318,-123,-318,-309v0,-145,101,-286,265,-286v24,0,54,5,73,12r49,-54r54,49r-346,383v49,95,128,131,220,131v151,0,279,-138,279,-295v0,-18,-2,-38,-5,-57r-91,37r-27,-68r251,-108xm323,-510v-113,0,-202,101,-202,213v0,4,0,17,3,25r214,-237v-5,0,-10,-1,-15,-1","w":837},"(":{"d":"210,-867r64,36v-51,78,-147,226,-147,472v0,247,96,395,147,472r-64,37v-58,-90,-160,-245,-160,-509v0,-264,102,-418,160,-508","w":274},"'":{"d":"49,-794r76,0r0,166r-69,0","w":160},"?":{"w":833},"+":{"d":"201,-425r70,0r0,124r123,0r0,68r-123,0r0,124r-70,0r0,-124r-123,0r0,-68r123,0r0,-124","w":454},"7":{"d":"91,191v6,-41,61,-284,244,-610r-315,0r0,-70r446,0v-225,362,-290,618,-301,680r-74,0","w":476},"5":{"d":"253,-276v130,0,232,103,232,239v0,135,-108,240,-241,240v-88,0,-163,-47,-204,-117r63,-37v29,49,81,82,141,82v92,0,163,-74,163,-168v0,-96,-64,-167,-154,-167v-35,0,-80,12,-115,39r-58,-25r75,-299r270,0r0,72r-213,0r-39,155v24,-8,51,-14,80,-14","w":535},"6":{"d":"291,-477v135,0,245,107,245,244v0,137,-110,244,-245,244v-176,0,-246,-150,-246,-244v0,-229,133,-427,368,-559r37,64v-133,74,-229,171,-281,284v36,-21,77,-33,122,-33xm291,-61v94,0,167,-76,167,-172v0,-96,-73,-172,-167,-172v-95,0,-168,76,-168,172v0,48,30,172,168,172","w":581},")":{"d":"0,-831r64,-36v58,90,160,244,160,508v0,264,-102,419,-160,509r-64,-37v51,-77,147,-225,147,-472v0,-246,-96,-394,-147,-472","w":274},":":{"d":"104,-99v31,0,55,25,55,55v0,30,-24,55,-55,55v-30,0,-54,-25,-54,-55v0,-30,24,-55,54,-55xm104,-499v31,0,55,25,55,55v0,30,-24,55,-55,55v-30,0,-54,-25,-54,-55v0,-30,24,-55,54,-55","w":209},".":{"d":"104,-99v31,0,55,25,55,55v0,30,-24,55,-55,55v-30,0,-54,-25,-54,-55v0,-30,24,-55,54,-55","w":209},"<":{"d":"146,-240r135,166r-53,41r-168,-207r168,-213r53,42","w":311},">":{"d":"30,-74r135,-166r-135,-171r53,-42r168,213r-168,207","w":311},"\u00a0":{"w":301}}});
